digraph Tree {
node [shape=box, style="filled, rounded", color="black", fontname=helvetica] ;
edge [fontname=helvetica] ;
0 [label=<perimeter_worst &le; 0.303<br/>entropy = 0.961<br/>samples = 398<br/>value = [245, 153]<br/>class = Benign>, fillcolor="#f5d0b5"] ;
1 [label=<concave_points_worst &le; 0.696<br/>entropy = 0.535<br/>samples = 279<br/>value = [245, 34]<br/>class = Benign>, fillcolor="#e99254"] ;
0 -> 1 [labeldistance=2.5, labelangle=45, headlabel="True"] ;
2 [label=<perimeter_worst &le; -0.155<br/>entropy = 0.373<br/>samples = 264<br/>value = [245, 19]<br/>class = Benign>, fillcolor="#e78b48"] ;
1 -> 2 ;
3 [label=<area_se &le; 0.19<br/>entropy = 0.135<br/>samples = 212<br/>value = [208, 4]<br/>class = Benign>, fillcolor="#e6833d"] ;
2 -> 3 ;
4 [label=<texture_worst &le; 1.249<br/>entropy = 0.078<br/>samples = 209<br/>value = [207, 2]<br/>class = Benign>, fillcolor="#e5823b"] ;
3 -> 4 ;
5 [label=<entropy = 0.0<br/>samples = 197<br/>value = [197, 0]<br/>class = Benign>, fillcolor="#e58139"] ;
4 -> 5 ;
6 [label=<entropy = 0.65<br/>samples = 12<br/>value = [10, 2]<br/>class = Benign>, fillcolor="#ea9a61"] ;
4 -> 6 ;
7 [label=<perimeter_worst &le; -0.257<br/>entropy = 0.918<br/>samples = 3<br/>value = [1, 2]<br/>class = Malicious>, fillcolor="#9ccef2"] ;
3 -> 7 ;
8 [label=<entropy = 0.0<br/>samples = 2<br/>value = [0, 2]<br/>class = Malicious>, fillcolor="#399de5"] ;
7 -> 8 ;
9 [label=<entropy = 0.0<br/>samples = 1<br/>value = [1, 0]<br/>class = Benign>, fillcolor="#e58139"] ;
7 -> 9 ;
10 [label=<texture_worst &le; 0.291<br/>entropy = 0.867<br/>samples = 52<br/>value = [37, 15]<br/>class = Benign>, fillcolor="#f0b489"] ;
2 -> 10 ;
11 [label=<smoothness_worst &le; 0.328<br/>entropy = 0.323<br/>samples = 34<br/>value = [32, 2]<br/>class = Benign>, fillcolor="#e78945"] ;
10 -> 11 ;
12 [label=<entropy = 0.0<br/>samples = 31<br/>value = [31, 0]<br/>class = Benign>, fillcolor="#e58139"] ;
11 -> 12 ;
13 [label=<entropy = 0.918<br/>samples = 3<br/>value = [1, 2]<br/>class = Malicious>, fillcolor="#9ccef2"] ;
11 -> 13 ;
14 [label=<perimeter_se &le; -0.121<br/>entropy = 0.852<br/>samples = 18<br/>value = [5, 13]<br/>class = Malicious>, fillcolor="#85c3ef"] ;
10 -> 14 ;
15 [label=<entropy = 1.0<br/>samples = 10<br/>value = [5, 5]<br/>class = Benign>, fillcolor="#ffffff"] ;
14 -> 15 ;
16 [label=<entropy = 0.0<br/>samples = 8<br/>value = [0, 8]<br/>class = Malicious>, fillcolor="#399de5"] ;
14 -> 16 ;
17 [label=<entropy = 0.0<br/>samples = 15<br/>value = [0, 15]<br/>class = Malicious>, fillcolor="#399de5"] ;
1 -> 17 ;
18 [label=<entropy = 0.0<br/>samples = 119<br/>value = [0, 119]<br/>class = Malicious>, fillcolor="#399de5"] ;
0 -> 18 [labeldistance=2.5, labelangle=-45, headlabel="False"] ;
}
